double score(double * input) {
    double var0;
    if (input[0] <= 76991.0) {
        if (input[1] <= 33603.0) {
            if (input[1] <= 10800.0) {
                if (input[1] <= 225.0) {
                    if (input[0] <= 49.5) {
                        if (input[0] <= 48.5) {
                            var0 = 1.0;
                        } else {
                            if (input[1] <= 168.0) {
                                var0 = 1.0;
                            } else {
                                var0 = 0.9;
                            }
                        }
                    } else {
                        var0 = 1.0;
                    }
                } else {
                    var0 = 1.0;
                }
            } else {
                if (input[1] <= 12185.0) {
                    var0 = 0.8;
                } else {
                    if (input[0] <= 1871.0) {
                        var0 = 0.8666666666666667;
                    } else {
                        if (input[0] <= 3377.0) {
                            var0 = 1.0;
                        } else {
                            if (input[1] <= 17203.0) {
                                var0 = 0.8333333333333334;
                            } else {
                                var0 = 1.0;
                            }
                        }
                    }
                }
            }
        } else {
            if (input[0] <= 7993.5) {
                if (input[1] <= 45742.0) {
                    var0 = 1.7272727272727273;
                } else {
                    if (input[1] <= 61165.0) {
                        var0 = 1.5454545454545454;
                    } else {
                        var0 = 1.3333333333333333;
                    }
                }
            } else {
                if (input[0] <= 8100.0) {
                    var0 = 0.6666666666666666;
                } else {
                    if (input[0] <= 8468.0) {
                        if (input[1] <= 73463.0) {
                            var0 = 1.25;
                        } else {
                            var0 = 1.8181818181818181;
                        }
                    } else {
                        if (input[1] <= 66050.0) {
                            if (input[0] <= 8639.5) {
                                var0 = 0.2;
                            } else {
                                var0 = 1.4;
                            }
                        } else {
                            if (input[1] <= 151435.0) {
                                if (input[0] <= 8616.5) {
                                    var0 = 1.125;
                                } else {
                                    if (input[0] <= 17121.5) {
                                        if (input[0] <= 12418.0) {
                                            var0 = 1.8333333333333333;
                                        } else {
                                            if (input[0] <= 16538.5) {
                                                var0 = 1.32;
                                            } else {
                                                if (input[0] <= 16889.0) {
                                                    var0 = 1.7142857142857142;
                                                } else {
                                                    var0 = 1.5;
                                                }
                                            }
                                        }
                                    } else {
                                        var0 = 1.1428571428571428;
                                    }
                                }
                            } else {
                                if (input[1] <= 153816.0) {
                                    var0 = 0.5;
                                } else {
                                    if (input[1] <= 171277.0) {
                                        if (input[1] <= 156454.0) {
                                            var0 = 1.0;
                                        } else {
                                            var0 = 1.8;
                                        }
                                    } else {
                                        if (input[1] <= 272553.0) {
                                            if (input[0] <= 17485.5) {
                                                var0 = 0.8125;
                                            } else {
                                                if (input[1] <= 191776.0) {
                                                    var0 = 1.2727272727272727;
                                                } else {
                                                    var0 = 0.7142857142857143;
                                                }
                                            }
                                        } else {
                                            if (input[0] <= 26945.0) {
                                                var0 = 1.5;
                                            } else {
                                                var0 = 1.3333333333333333;
                                            }
                                        }
                                    }
                                }
                            }
                        }
                    }
                }
            }
        }
    } else {
        if (input[1] <= 933994.0) {
            if (input[0] <= 98203.0) {
                var0 = 2.25;
            } else {
                if (input[1] <= 324693.0) {
                    var0 = 1.0;
                } else {
                    var0 = 1.875;
                }
            }
        } else {
            if (input[0] <= 226318.0) {
                if (input[0] <= 151796.0) {
                    var0 = 2.8;
                } else {
                    if (input[0] <= 198980.5) {
                        var0 = 3.4285714285714284;
                    } else {
                        var0 = 3.9;
                    }
                }
            } else {
                if (input[1] <= 3784371.0) {
                    var0 = 2.7777777777777777;
                } else {
                    var0 = 2.0;
                }
            }
        }
    }
    double var1;
    if (input[0] <= 3737.5) {
        if (input[0] <= 49.5) {
            if (input[0] <= 26.5) {
                var1 = 1.0;
            } else {
                if (input[1] <= 214.0) {
                    if (input[0] <= 27.5) {
                        if (input[1] <= 101.0) {
                            var1 = 1.0;
                        } else {
                            var1 = 0.6666666666666666;
                        }
                    } else {
                        var1 = 1.0;
                    }
                } else {
                    var1 = 0.7142857142857143;
                }
            }
        } else {
            if (input[0] <= 1833.0) {
                var1 = 1.0;
            } else {
                if (input[0] <= 2429.5) {
                    var1 = 0.7142857142857143;
                } else {
                    var1 = 1.0;
                }
            }
        }
    } else {
        if (input[0] <= 75818.0) {
            if (input[0] <= 8468.0) {
                if (input[1] <= 79957.0) {
                    if (input[0] <= 7764.5) {
                        var1 = 1.4166666666666667;
                    } else {
                        if (input[0] <= 8241.5) {
                            if (input[1] <= 63988.0) {
                                var1 = 1.7777777777777777;
                            } else {
                                var1 = 1.5454545454545454;
                            }
                        } else {
                            var1 = 1.8571428571428572;
                        }
                    }
                } else {
                    var1 = 1.3076923076923077;
                }
            } else {
                if (input[0] <= 8616.0) {
                    if (input[0] <= 8485.0) {
                        var1 = 0.9230769230769231;
                    } else {
                        var1 = 0.6923076923076923;
                    }
                } else {
                    if (input[0] <= 8756.5) {
                        var1 = 2.0;
                    } else {
                        if (input[1] <= 272553.0) {
                            if (input[1] <= 117295.0) {
                                if (input[1] <= 69942.0) {
                                    var1 = 0.8333333333333334;
                                } else {
                                    if (input[1] <= 81651.0) {
                                        var1 = 2.0;
                                    } else {
                                        if (input[0] <= 16282.5) {
                                            var1 = 1.15;
                                        } else {
                                            if (input[0] <= 16889.0) {
                                                var1 = 2.0;
                                            } else {
                                                var1 = 1.5;
                                            }
                                        }
                                    }
                                }
                            } else {
                                if (input[1] <= 130313.0) {
                                    var1 = 0.15384615384615385;
                                } else {
                                    if (input[1] <= 191972.0) {
                                        if (input[1] <= 171277.0) {
                                            if (input[1] <= 160341.0) {
                                                if (input[0] <= 17454.0) {
                                                    var1 = 1.75;
                                                } else {
                                                    if (input[0] <= 54414.5) {
                                                        var1 = 1.1428571428571428;
                                                    } else {
                                                        if (input[1] <= 150278.0) {
                                                            var1 = 1.25;
                                                        } else {
                                                            var1 = 1.4285714285714286;
                                                        }
                                                    }
                                                }
                                            } else {
                                                var1 = 1.8571428571428572;
                                            }
                                        } else {
                                            if (input[1] <= 184749.0) {
                                                var1 = 0.625;
                                            } else {
                                                var1 = 1.5833333333333333;
                                            }
                                        }
                                    } else {
                                        var1 = 0.7;
                                    }
                                }
                            }
                        } else {
                            var1 = 2.0;
                        }
                    }
                }
            }
        } else {
            if (input[0] <= 302707.0) {
                if (input[0] <= 150227.0) {
                    if (input[0] <= 88289.0) {
                        var1 = 2.625;
                    } else {
                        if (input[1] <= 423946.0) {
                            var1 = 1.25;
                        } else {
                            var1 = 2.0;
                        }
                    }
                } else {
                    if (input[1] <= 1994631.0) {
                        var1 = 1.75;
                    } else {
                        if (input[1] <= 2625930.0) {
                            var1 = 4.4;
                        } else {
                            var1 = 2.875;
                        }
                    }
                }
            } else {
                var1 = 1.3076923076923077;
            }
        }
    }
    double var2;
    if (input[1] <= 746988.0) {
        if (input[1] <= 35182.0) {
            if (input[1] <= 10800.0) {
                if (input[0] <= 231.5) {
                    var2 = 1.0;
                } else {
                    if (input[1] <= 1308.0) {
                        if (input[1] <= 1155.0) {
                            var2 = 1.0;
                        } else {
                            var2 = 1.1666666666666667;
                        }
                    } else {
                        var2 = 1.0;
                    }
                }
            } else {
                if (input[1] <= 13831.0) {
                    var2 = 0.8181818181818182;
                } else {
                    if (input[0] <= 1867.0) {
                        var2 = 0.9166666666666666;
                    } else {
                        var2 = 1.0;
                    }
                }
            }
        } else {
            if (input[0] <= 17173.0) {
                if (input[0] <= 16680.5) {
                    if (input[1] <= 81601.0) {
                        if (input[0] <= 8042.5) {
                            if (input[0] <= 7341.0) {
                                var2 = 1.1666666666666667;
                            } else {
                                var2 = 1.0;
                            }
                        } else {
                            if (input[1] <= 51891.0) {
                                var2 = 1.8;
                            } else {
                                if (input[1] <= 65416.0) {
                                    if (input[0] <= 8479.5) {
                                        var2 = 1.3333333333333333;
                                    } else {
                                        var2 = 0.9166666666666666;
                                    }
                                } else {
                                    if (input[0] <= 8551.0) {
                                        var2 = 1.4285714285714286;
                                    } else {
                                        var2 = 1.8888888888888888;
                                    }
                                }
                            }
                        }
                    } else {
                        if (input[1] <= 99803.0) {
                            if (input[0] <= 12414.0) {
                                var2 = 0.7142857142857143;
                            } else {
                                var2 = 1.1111111111111112;
                            }
                        } else {
                            if (input[0] <= 16041.0) {
                                if (input[1] <= 169180.0) {
                                    var2 = 1.7857142857142858;
                                } else {
                                    var2 = 1.5;
                                }
                            } else {
                                var2 = 0.5555555555555556;
                            }
                        }
                    }
                } else {
                    if (input[1] <= 94783.0) {
                        var2 = 2.0;
                    } else {
                        if (input[0] <= 16976.0) {
                            var2 = 1.3333333333333333;
                        } else {
                            var2 = 2.0;
                        }
                    }
                }
            } else {
                if (input[1] <= 332381.0) {
                    if (input[1] <= 167383.0) {
                        if (input[1] <= 147583.0) {
                            var2 = 0.8888888888888888;
                        } else {
                            if (input[0] <= 54416.0) {
                                var2 = 1.3571428571428572;
                            } else {
                                var2 = 1.1666666666666667;
                            }
                        }
                    } else {
                        if (input[1] <= 272079.0) {
                            if (input[0] <= 56546.0) {
                                var2 = 0.4444444444444444;
                            } else {
                                var2 = 1.0;
                            }
                        } else {
                            var2 = 1.1111111111111112;
                        }
                    }
                } else {
                    if (input[1] <= 431908.0) {
                        var2 = 2.0;
                    } else {
                        var2 = 1.0;
                    }
                }
            }
        }
    } else {
        if (input[0] <= 150227.0) {
            if (input[0] <= 141210.0) {
                var2 = 2.4444444444444446;
            } else {
                var2 = 2.125;
            }
        } else {
            if (input[0] <= 213126.5) {
                if (input[1] <= 3627948.0) {
                    var2 = 3.625;
                } else {
                    var2 = 2.857142857142857;
                }
            } else {
                if (input[0] <= 339223.0) {
                    var2 = 1.1666666666666667;
                } else {
                    var2 = 2.909090909090909;
                }
            }
        }
    }
    double var3;
    if (input[0] <= 75689.0) {
        if (input[0] <= 3633.5) {
            if (input[0] <= 3377.0) {
                if (input[0] <= 938.5) {
                    if (input[1] <= 1295.0) {
                        var3 = 1.0;
                    } else {
                        if (input[0] <= 231.5) {
                            var3 = 1.0;
                        } else {
                            if (input[1] <= 1569.0) {
                                var3 = 1.3636363636363635;
                            } else {
                                var3 = 1.0;
                            }
                        }
                    }
                } else {
                    if (input[0] <= 1036.0) {
                        var3 = 0.7;
                    } else {
                        if (input[1] <= 13568.0) {
                            var3 = 1.0;
                        } else {
                            if (input[1] <= 14319.0) {
                                var3 = 0.8;
                            } else {
                                if (input[1] <= 15545.0) {
                                    if (input[1] <= 15264.0) {
                                        var3 = 1.0;
                                    } else {
                                        var3 = 0.8333333333333334;
                                    }
                                } else {
                                    var3 = 1.0;
                                }
                            }
                        }
                    }
                }
            } else {
                var3 = 0.8;
            }
        } else {
            if (input[0] <= 8616.0) {
                if (input[1] <= 78619.0) {
                    if (input[1] <= 66053.0) {
                        if (input[0] <= 8153.0) {
                            if (input[0] <= 7978.5) {
                                var3 = 1.5;
                            } else {
                                var3 = 2.0;
                            }
                        } else {
                            var3 = 0.7894736842105263;
                        }
                    } else {
                        if (input[1] <= 69590.0) {
                            var3 = 1.7272727272727273;
                        } else {
                            var3 = 1.4;
                        }
                    }
                } else {
                    if (input[0] <= 8265.5) {
                        var3 = 0.5;
                    } else {
                        if (input[1] <= 102487.0) {
                            var3 = 0.5;
                        } else {
                            var3 = 1.8571428571428572;
                        }
                    }
                }
            } else {
                if (input[1] <= 339110.0) {
                    if (input[0] <= 55852.5) {
                        if (input[0] <= 8721.0) {
                            var3 = 2.0;
                        } else {
                            if (input[0] <= 15841.5) {
                                var3 = 1.0;
                            } else {
                                if (input[0] <= 16891.0) {
                                    if (input[0] <= 16538.5) {
                                        if (input[1] <= 123863.0) {
                                            if (input[1] <= 88598.0) {
                                                var3 = 1.3636363636363635;
                                            } else {
                                                var3 = 1.8;
                                            }
                                        } else {
                                            if (input[0] <= 16052.0) {
                                                var3 = 1.3;
                                            } else {
                                                var3 = 0.7142857142857143;
                                            }
                                        }
                                    } else {
                                        var3 = 2.0;
                                    }
                                } else {
                                    if (input[1] <= 198649.0) {
                                        if (input[1] <= 127647.0) {
                                            var3 = 0.8888888888888888;
                                        } else {
                                            if (input[0] <= 36154.5) {
                                                if (input[1] <= 146393.0) {
                                                    var3 = 1.8571428571428572;
                                                } else {
                                                    if (input[1] <= 181251.0) {
                                                        var3 = 1.2;
                                                    } else {
                                                        var3 = 1.75;
                                                    }
                                                }
                                            } else {
                                                if (input[1] <= 154312.0) {
                                                    var3 = 1.1666666666666667;
                                                } else {
                                                    var3 = 1.6666666666666667;
                                                }
                                            }
                                        }
                                    } else {
                                        var3 = 0.75;
                                    }
                                }
                            }
                        }
                    } else {
                        if (input[1] <= 196507.0) {
                            if (input[1] <= 178345.0) {
                                var3 = 0.7142857142857143;
                            } else {
                                var3 = 1.0;
                            }
                        } else {
                            var3 = 1.3333333333333333;
                        }
                    }
                } else {
                    var3 = 2.0;
                }
            }
        }
    } else {
        if (input[0] <= 211761.5) {
            if (input[1] <= 2031852.0) {
                if (input[1] <= 535658.0) {
                    var3 = 1.4285714285714286;
                } else {
                    if (input[0] <= 87318.0) {
                        var3 = 2.7;
                    } else {
                        var3 = 1.875;
                    }
                }
            } else {
                if (input[0] <= 151796.0) {
                    var3 = 2.142857142857143;
                } else {
                    if (input[0] <= 197085.5) {
                        var3 = 3.5;
                    } else {
                        var3 = 4.111111111111111;
                    }
                }
            }
        } else {
            if (input[0] <= 339223.0) {
                var3 = 1.0625;
            } else {
                if (input[1] <= 4958355.0) {
                    var3 = 2.8181818181818183;
                } else {
                    var3 = 2.4285714285714284;
                }
            }
        }
    }
    double var4;
    if (input[0] <= 75965.0) {
        if (input[1] <= 33962.0) {
            if (input[1] <= 15467.0) {
                if (input[1] <= 1295.0) {
                    var4 = 1.0;
                } else {
                    if (input[0] <= 232.5) {
                        if (input[0] <= 229.5) {
                            var4 = 1.0;
                        } else {
                            var4 = 1.1666666666666667;
                        }
                    } else {
                        var4 = 1.0;
                    }
                }
            } else {
                if (input[0] <= 2119.5) {
                    var4 = 0.75;
                } else {
                    var4 = 1.0;
                }
            }
        } else {
            if (input[1] <= 117295.0) {
                if (input[0] <= 8616.0) {
                    if (input[1] <= 95493.0) {
                        if (input[1] <= 81099.0) {
                            if (input[0] <= 8280.5) {
                                if (input[1] <= 53814.0) {
                                    var4 = 1.1875;
                                } else {
                                    if (input[0] <= 8113.5) {
                                        var4 = 1.8333333333333333;
                                    } else {
                                        var4 = 1.8888888888888888;
                                    }
                                }
                            } else {
                                var4 = 1.0666666666666667;
                            }
                        } else {
                            var4 = 0.25;
                        }
                    } else {
                        var4 = 1.6923076923076923;
                    }
                } else {
                    if (input[1] <= 69312.0) {
                        if (input[1] <= 60195.0) {
                            var4 = 1.625;
                        } else {
                            var4 = 1.3571428571428572;
                        }
                    } else {
                        if (input[0] <= 8984.0) {
                            var4 = 2.0;
                        } else {
                            if (input[0] <= 15888.0) {
                                var4 = 1.375;
                            } else {
                                if (input[0] <= 16889.0) {
                                    if (input[1] <= 101867.0) {
                                        var4 = 2.0;
                                    } else {
                                        var4 = 1.6923076923076923;
                                    }
                                } else {
                                    var4 = 1.5555555555555556;
                                }
                            }
                        }
                    }
                }
            } else {
                if (input[1] <= 132706.0) {
                    var4 = 0.46153846153846156;
                } else {
                    if (input[0] <= 17957.5) {
                        if (input[1] <= 171277.0) {
                            if (input[0] <= 16760.5) {
                                var4 = 1.5625;
                            } else {
                                var4 = 1.8888888888888888;
                            }
                        } else {
                            if (input[0] <= 16656.5) {
                                var4 = 1.0;
                            } else {
                                if (input[1] <= 191161.0) {
                                    var4 = 1.4;
                                } else {
                                    var4 = 1.6666666666666667;
                                }
                            }
                        }
                    } else {
                        if (input[0] <= 62343.0) {
                            if (input[0] <= 55017.5) {
                                if (input[0] <= 54414.5) {
                                    var4 = 1.1;
                                } else {
                                    var4 = 1.3076923076923077;
                                }
                            } else {
                                var4 = 1.0;
                            }
                        } else {
                            var4 = 1.3846153846153846;
                        }
                    }
                }
            }
        }
    } else {
        if (input[0] <= 339223.0) {
            if (input[0] <= 275869.5) {
                if (input[1] <= 671719.0) {
                    if (input[0] <= 98246.5) {
                        var4 = 1.9090909090909092;
                    } else {
                        var4 = 1.5;
                    }
                } else {
                    if (input[1] <= 4507784.0) {
                        if (input[0] <= 198578.5) {
                            if (input[1] <= 881521.0) {
                                var4 = 2.8;
                            } else {
                                var4 = 3.0;
                            }
                        } else {
                            var4 = 3.4;
                        }
                    } else {
                        var4 = 1.875;
                    }
                }
            } else {
                var4 = 0.8888888888888888;
            }
        } else {
            if (input[1] <= 8569484.0) {
                var4 = 2.6153846153846154;
            } else {
                var4 = 3.6;
            }
        }
    }
    double var5;
    if (input[1] <= 543351.0) {
        if (input[1] <= 65416.0) {
            if (input[1] <= 60340.0) {
                if (input[1] <= 33603.0) {
                    if (input[1] <= 10800.0) {
                        if (input[0] <= 49.5) {
                            if (input[0] <= 26.5) {
                                var5 = 1.0;
                            } else {
                                if (input[0] <= 48.5) {
                                    var5 = 0.9743589743589743;
                                } else {
                                    if (input[1] <= 207.0) {
                                        var5 = 1.0;
                                    } else {
                                        var5 = 0.8;
                                    }
                                }
                            }
                        } else {
                            var5 = 1.0;
                        }
                    } else {
                        if (input[0] <= 1867.0) {
                            if (input[0] <= 938.5) {
                                var5 = 1.0;
                            } else {
                                var5 = 0.5714285714285714;
                            }
                        } else {
                            var5 = 1.0;
                        }
                    }
                } else {
                    if (input[1] <= 51694.0) {
                        if (input[1] <= 47266.0) {
                            var5 = 1.3333333333333333;
                        } else {
                            var5 = 1.75;
                        }
                    } else {
                        if (input[1] <= 55811.0) {
                            var5 = 0.9090909090909091;
                        } else {
                            var5 = 1.2857142857142858;
                        }
                    }
                }
            } else {
                if (input[1] <= 62070.0) {
                    var5 = 0.7142857142857143;
                } else {
                    var5 = 0.8;
                }
            }
        } else {
            if (input[1] <= 79302.0) {
                if (input[1] <= 76837.0) {
                    if (input[0] <= 8263.5) {
                        var5 = 1.4444444444444444;
                    } else {
                        var5 = 2.0;
                    }
                } else {
                    var5 = 2.0;
                }
            } else {
                if (input[0] <= 93496.0) {
                    if (input[0] <= 16378.0) {
                        if (input[1] <= 136179.0) {
                            if (input[1] <= 96734.0) {
                                if (input[1] <= 83282.0) {
                                    var5 = 1.2727272727272727;
                                } else {
                                    var5 = 0.8;
                                }
                            } else {
                                var5 = 1.6;
                            }
                        } else {
                            var5 = 0.6666666666666666;
                        }
                    } else {
                        if (input[0] <= 17081.0) {
                            if (input[1] <= 110582.0) {
                                if (input[1] <= 98701.0) {
                                    var5 = 1.7777777777777777;
                                } else {
                                    var5 = 2.0;
                                }
                            } else {
                                if (input[1] <= 132192.0) {
                                    var5 = 0.7142857142857143;
                                } else {
                                    if (input[1] <= 179723.0) {
                                        var5 = 1.8;
                                    } else {
                                        var5 = 1.6;
                                    }
                                }
                            }
                        } else {
                            if (input[1] <= 332381.0) {
                                if (input[0] <= 17631.0) {
                                    var5 = 0.5454545454545454;
                                } else {
                                    if (input[0] <= 36154.5) {
                                        var5 = 1.8181818181818181;
                                    } else {
                                        if (input[0] <= 55017.5) {
                                            if (input[0] <= 54416.5) {
                                                var5 = 1.1;
                                            } else {
                                                var5 = 1.3;
                                            }
                                        } else {
                                            if (input[1] <= 178345.0) {
                                                var5 = 0.4444444444444444;
                                            } else {
                                                var5 = 1.1538461538461537;
                                            }
                                        }
                                    }
                                }
                            } else {
                                var5 = 1.8;
                            }
                        }
                    }
                } else {
                    var5 = 1.7857142857142858;
                }
            }
        }
    } else {
        if (input[0] <= 209822.0) {
            if (input[0] <= 151796.0) {
                if (input[1] <= 3007924.0) {
                    var5 = 2.9;
                } else {
                    var5 = 2.0;
                }
            } else {
                var5 = 3.8666666666666667;
            }
        } else {
            if (input[1] <= 982186.0) {
                var5 = 1.8666666666666667;
            } else {
                if (input[1] <= 3579602.0) {
                    var5 = 3.125;
                } else {
                    var5 = 2.0;
                }
            }
        }
    }
    double var6;
    if (input[1] <= 586203.0) {
        if (input[1] <= 33334.0) {
            if (input[0] <= 938.5) {
                var6 = 1.0;
            } else {
                if (input[1] <= 10800.0) {
                    var6 = 1.0;
                } else {
                    if (input[0] <= 1885.0) {
                        var6 = 0.875;
                    } else {
                        var6 = 1.0;
                    }
                }
            }
        } else {
            if (input[0] <= 7993.5) {
                var6 = 2.0;
            } else {
                if (input[1] <= 108223.0) {
                    if (input[1] <= 88538.0) {
                        if (input[1] <= 83924.0) {
                            if (input[1] <= 64427.0) {
                                if (input[0] <= 8567.5) {
                                    if (input[1] <= 57318.0) {
                                        var6 = 0.8571428571428571;
                                    } else {
                                        var6 = 0.6;
                                    }
                                } else {
                                    if (input[1] <= 55170.0) {
                                        var6 = 1.2857142857142858;
                                    } else {
                                        var6 = 1.3333333333333333;
                                    }
                                }
                            } else {
                                if (input[1] <= 78991.0) {
                                    if (input[1] <= 68623.0) {
                                        var6 = 1.6666666666666667;
                                    } else {
                                        var6 = 1.9333333333333333;
                                    }
                                } else {
                                    var6 = 1.3076923076923077;
                                }
                            }
                        } else {
                            var6 = 0.5;
                        }
                    } else {
                        if (input[0] <= 16341.0) {
                            var6 = 1.7692307692307692;
                        } else {
                            var6 = 1.8888888888888888;
                        }
                    }
                } else {
                    if (input[0] <= 83683.5) {
                        if (input[0] <= 15957.5) {
                            var6 = 1.7;
                        } else {
                            if (input[1] <= 132192.0) {
                                var6 = 0.3076923076923077;
                            } else {
                                if (input[1] <= 138718.0) {
                                    var6 = 2.0;
                                } else {
                                    if (input[1] <= 153016.0) {
                                        if (input[0] <= 54416.0) {
                                            var6 = 1.411764705882353;
                                        } else {
                                            var6 = 1.1;
                                        }
                                    } else {
                                        if (input[0] <= 60327.5) {
                                            if (input[0] <= 17341.5) {
                                                if (input[0] <= 16828.0) {
                                                    var6 = 1.125;
                                                } else {
                                                    var6 = 1.0909090909090908;
                                                }
                                            } else {
                                                if (input[1] <= 173553.0) {
                                                    var6 = 1.0;
                                                } else {
                                                    var6 = 0.6666666666666666;
                                                }
                                            }
                                        } else {
                                            var6 = 1.3333333333333333;
                                        }
                                    }
                                }
                            }
                        }
                    } else {
                        if (input[1] <= 272294.0) {
                            var6 = 1.3333333333333333;
                        } else {
                            var6 = 2.0;
                        }
                    }
                }
            }
        }
    } else {
        if (input[0] <= 153032.0) {
            if (input[0] <= 118254.5) {
                var6 = 2.5833333333333335;
            } else {
                var6 = 1.7777777777777777;
            }
        } else {
            if (input[0] <= 209821.5) {
                if (input[0] <= 197907.0) {
                    var6 = 3.4285714285714284;
                } else {
                    var6 = 4.125;
                }
            } else {
                if (input[0] <= 339223.0) {
                    var6 = 1.625;
                } else {
                    if (input[0] <= 780719.5) {
                        var6 = 3.3333333333333335;
                    } else {
                        var6 = 2.142857142857143;
                    }
                }
            }
        }
    }
    double var7;
    if (input[0] <= 75769.0) {
        if (input[1] <= 65416.0) {
            if (input[0] <= 8629.0) {
                if (input[1] <= 33962.0) {
                    if (input[1] <= 10800.0) {
                        if (input[0] <= 231.5) {
                            var7 = 1.0;
                        } else {
                            if (input[1] <= 1327.0) {
                                if (input[0] <= 232.5) {
                                    var7 = 1.1111111111111112;
                                } else {
                                    var7 = 1.0;
                                }
                            } else {
                                var7 = 1.0;
                            }
                        }
                    } else {
                        if (input[1] <= 13831.0) {
                            if (input[1] <= 12281.0) {
                                var7 = 0.8;
                            } else {
                                var7 = 0.9166666666666666;
                            }
                        } else {
                            if (input[0] <= 1871.0) {
                                var7 = 0.9090909090909091;
                            } else {
                                var7 = 1.0;
                            }
                        }
                    }
                } else {
                    if (input[1] <= 49128.0) {
                        var7 = 1.9;
                    } else {
                        if (input[0] <= 8041.0) {
                            var7 = 0.8571428571428571;
                        } else {
                            var7 = 1.4;
                        }
                    }
                }
            } else {
                var7 = 0.4666666666666667;
            }
        } else {
            if (input[1] <= 332381.0) {
                if (input[0] <= 54417.5) {
                    if (input[0] <= 8266.5) {
                        if (input[0] <= 8139.5) {
                            var7 = 0.8571428571428571;
                        } else {
                            var7 = 1.1666666666666667;
                        }
                    } else {
                        if (input[0] <= 8475.5) {
                            var7 = 1.8461538461538463;
                        } else {
                            if (input[0] <= 16378.0) {
                                if (input[1] <= 83282.0) {
                                    if (input[1] <= 77513.0) {
                                        var7 = 2.0;
                                    } else {
                                        var7 = 1.7142857142857142;
                                    }
                                } else {
                                    if (input[1] <= 132558.0) {
                                        if (input[0] <= 15841.5) {
                                            var7 = 1.0;
                                        } else {
                                            var7 = 1.3333333333333333;
                                        }
                                    } else {
                                        var7 = 0.8333333333333334;
                                    }
                                }
                            } else {
                                if (input[0] <= 16869.5) {
                                    if (input[1] <= 105714.0) {
                                        var7 = 2.0;
                                    } else {
                                        var7 = 1.9;
                                    }
                                } else {
                                    if (input[0] <= 16978.0) {
                                        if (input[0] <= 16924.5) {
                                            var7 = 1.4285714285714286;
                                        } else {
                                            var7 = 0.8333333333333334;
                                        }
                                    } else {
                                        if (input[1] <= 128089.0) {
                                            var7 = 1.0;
                                        } else {
                                            if (input[0] <= 17485.5) {
                                                var7 = 1.8181818181818181;
                                            } else {
                                                if (input[1] <= 153016.0) {
                                                    var7 = 1.8571428571428572;
                                                } else {
                                                    var7 = 1.2222222222222223;
                                                }
                                            }
                                        }
                                    }
                                }
                            }
                        }
                    }
                } else {
                    if (input[0] <= 56546.0) {
                        var7 = 0.5;
                    } else {
                        if (input[0] <= 68455.5) {
                            var7 = 1.0714285714285714;
                        } else {
                            var7 = 1.3333333333333333;
                        }
                    }
                }
            } else {
                var7 = 1.9285714285714286;
            }
        }
    } else {
        if (input[1] <= 1843793.0) {
            if (input[0] <= 88289.0) {
                var7 = 2.7142857142857144;
            } else {
                if (input[0] <= 224228.5) {
                    if (input[0] <= 165929.0) {
                        if (input[1] <= 273890.0) {
                            var7 = 1.4;
                        } else {
                            var7 = 1.6666666666666667;
                        }
                    } else {
                        var7 = 1.3333333333333333;
                    }
                } else {
                    var7 = 2.2222222222222223;
                }
            }
        } else {
            if (input[1] <= 3680883.0) {
                if (input[0] <= 201524.5) {
                    var7 = 4.1;
                } else {
                    var7 = 4.0;
                }
            } else {
                if (input[1] <= 6155824.0) {
                    var7 = 0.875;
                } else {
                    if (input[0] <= 467251.5) {
                        var7 = 2.5454545454545454;
                    } else {
                        var7 = 3.3;
                    }
                }
            }
        }
    }
    double var8;
    if (input[0] <= 76014.0) {
        if (input[1] <= 61860.0) {
            if (input[0] <= 8587.0) {
                if (input[0] <= 8159.5) {
                    if (input[0] <= 3633.5) {
                        if (input[1] <= 13568.0) {
                            if (input[1] <= 1295.0) {
                                if (input[1] <= 225.0) {
                                    if (input[0] <= 49.5) {
                                        if (input[0] <= 48.5) {
                                            var8 = 1.0;
                                        } else {
                                            if (input[1] <= 173.0) {
                                                var8 = 1.0;
                                            } else {
                                                var8 = 0.8333333333333334;
                                            }
                                        }
                                    } else {
                                        var8 = 1.0;
                                    }
                                } else {
                                    var8 = 1.0;
                                }
                            } else {
                                if (input[1] <= 1352.0) {
                                    var8 = 1.375;
                                } else {
                                    var8 = 1.0;
                                }
                            }
                        } else {
                            if (input[0] <= 1885.0) {
                                var8 = 0.8181818181818182;
                            } else {
                                if (input[1] <= 17064.0) {
                                    var8 = 1.0;
                                } else {
                                    if (input[0] <= 3362.0) {
                                        var8 = 1.0;
                                    } else {
                                        var8 = 0.7142857142857143;
                                    }
                                }
                            }
                        }
                    } else {
                        if (input[0] <= 7983.0) {
                            var8 = 1.3333333333333333;
                        } else {
                            var8 = 0.9090909090909091;
                        }
                    }
                } else {
                    var8 = 0.5;
                }
            } else {
                var8 = 1.3636363636363635;
            }
        } else {
            if (input[1] <= 107424.0) {
                if (input[1] <= 78991.0) {
                    if (input[0] <= 8553.5) {
                        if (input[0] <= 8196.0) {
                            var8 = 1.7;
                        } else {
                            var8 = 1.5;
                        }
                    } else {
                        var8 = 1.9444444444444444;
                    }
                } else {
                    if (input[0] <= 8991.0) {
                        if (input[0] <= 8435.5) {
                            var8 = 1.4285714285714286;
                        } else {
                            var8 = 0.36363636363636365;
                        }
                    } else {
                        if (input[1] <= 85185.0) {
                            var8 = 1.6363636363636365;
                        } else {
                            if (input[0] <= 16244.5) {
                                var8 = 1.4444444444444444;
                            } else {
                                var8 = 2.0;
                            }
                        }
                    }
                }
            } else {
                if (input[1] <= 272553.0) {
                    if (input[1] <= 145199.0) {
                        if (input[1] <= 128089.0) {
                            if (input[1] <= 118004.0) {
                                var8 = 1.2222222222222223;
                            } else {
                                var8 = 0.3333333333333333;
                            }
                        } else {
                            var8 = 1.8666666666666667;
                        }
                    } else {
                        if (input[1] <= 151688.0) {
                            var8 = 0.7;
                        } else {
                            if (input[1] <= 204032.0) {
                                if (input[0] <= 17665.0) {
                                    if (input[1] <= 171277.0) {
                                        var8 = 1.75;
                                    } else {
                                        var8 = 1.5;
                                    }
                                } else {
                                    if (input[0] <= 55712.0) {
                                        var8 = 1.0833333333333333;
                                    } else {
                                        if (input[1] <= 187804.0) {
                                            var8 = 0.7;
                                        } else {
                                            var8 = 1.0;
                                        }
                                    }
                                }
                            } else {
                                var8 = 0.8;
                            }
                        }
                    }
                } else {
                    if (input[0] <= 46965.5) {
                        var8 = 1.375;
                    } else {
                        var8 = 2.0;
                    }
                }
            }
        }
    } else {
        if (input[0] <= 150227.0) {
            if (input[1] <= 273869.0) {
                var8 = 1.1428571428571428;
            } else {
                if (input[1] <= 1157244.0) {
                    if (input[1] <= 779264.0) {
                        var8 = 2.25;
                    } else {
                        var8 = 2.7;
                    }
                } else {
                    var8 = 1.3333333333333333;
                }
            }
        } else {
            if (input[1] <= 3579602.0) {
                if (input[1] <= 1495048.0) {
                    var8 = 1.8181818181818181;
                } else {
                    var8 = 4.0;
                }
            } else {
                if (input[0] <= 263161.0) {
                    var8 = 2.5;
                } else {
                    var8 = 1.375;
                }
            }
        }
    }
    double var9;
    if (input[0] <= 75965.0) {
        if (input[1] <= 61860.0) {
            if (input[0] <= 3633.5) {
                if (input[0] <= 3377.0) {
                    if (input[1] <= 10800.0) {
                        if (input[1] <= 123.0) {
                            if (input[1] <= 117.0) {
                                var9 = 1.0;
                            } else {
                                var9 = 0.75;
                            }
                        } else {
                            if (input[1] <= 225.0) {
                                if (input[1] <= 212.0) {
                                    var9 = 1.0;
                                } else {
                                    var9 = 0.8571428571428571;
                                }
                            } else {
                                if (input[1] <= 1295.0) {
                                    var9 = 1.0;
                                } else {
                                    if (input[0] <= 232.5) {
                                        if (input[0] <= 229.5) {
                                            var9 = 1.0;
                                        } else {
                                            var9 = 1.1428571428571428;
                                        }
                                    } else {
                                        var9 = 1.0;
                                    }
                                }
                            }
                        }
                    } else {
                        if (input[1] <= 13866.0) {
                            var9 = 0.8333333333333334;
                        } else {
                            if (input[0] <= 1871.0) {
                                var9 = 0.9090909090909091;
                            } else {
                                var9 = 1.0;
                            }
                        }
                    }
                } else {
                    var9 = 0.8571428571428571;
                }
            } else {
                if (input[0] <= 7983.0) {
                    var9 = 1.2352941176470589;
                } else {
                    if (input[0] <= 8526.5) {
                        var9 = 0.6666666666666666;
                    } else {
                        var9 = 1.2;
                    }
                }
            }
        } else {
            if (input[1] <= 107595.0) {
                if (input[1] <= 72060.0) {
                    if (input[0] <= 8481.0) {
                        if (input[1] <= 67700.0) {
                            var9 = 1.4444444444444444;
                        } else {
                            var9 = 1.8571428571428572;
                        }
                    } else {
                        var9 = 2.0;
                    }
                } else {
                    if (input[0] <= 15917.5) {
                        if (input[0] <= 8358.5) {
                            if (input[0] <= 8183.5) {
                                var9 = 1.4;
                            } else {
                                var9 = 1.5555555555555556;
                            }
                        } else {
                            if (input[0] <= 8479.0) {
                                var9 = 0.8571428571428571;
                            } else {
                                if (input[1] <= 90180.0) {
                                    var9 = 1.2857142857142858;
                                } else {
                                    var9 = 1.5454545454545454;
                                }
                            }
                        }
                    } else {
                        if (input[0] <= 16730.5) {
                            var9 = 2.0;
                        } else {
                            var9 = 1.7142857142857142;
                        }
                    }
                }
            } else {
                if (input[0] <= 16214.0) {
                    if (input[1] <= 162487.0) {
                        var9 = 1.3333333333333333;
                    } else {
                        var9 = 1.6;
                    }
                } else {
                    if (input[0] <= 16656.5) {
                        var9 = 0.4;
                    } else {
                        if (input[1] <= 130313.0) {
                            var9 = 0.0;
                        } else {
                            if (input[0] <= 17252.5) {
                                if (input[0] <= 16938.5) {
                                    var9 = 1.4285714285714286;
                                } else {
                                    var9 = 2.0;
                                }
                            } else {
                                if (input[0] <= 60932.5) {
                                    if (input[1] <= 153030.0) {
                                        var9 = 1.6666666666666667;
                                    } else {
                                        if (input[1] <= 162944.0) {
                                            var9 = 0.7333333333333333;
                                        } else {
                                            if (input[1] <= 191776.0) {
                                                var9 = 1.4444444444444444;
                                            } else {
                                                var9 = 0.7857142857142857;
                                            }
                                        }
                                    }
                                } else {
                                    var9 = 1.4545454545454546;
                                }
                            }
                        }
                    }
                }
            }
        }
    } else {
        if (input[1] <= 6431156.0) {
            if (input[1] <= 5365721.0) {
                if (input[0] <= 88289.0) {
                    var9 = 2.6875;
                } else {
                    if (input[0] <= 198578.5) {
                        if (input[0] <= 98227.5) {
                            var9 = 1.8571428571428572;
                        } else {
                            var9 = 1.7692307692307692;
                        }
                    } else {
                        if (input[0] <= 217618.5) {
                            var9 = 3.6;
                        } else {
                            if (input[1] <= 982186.0) {
                                var9 = 1.7777777777777777;
                            } else {
                                var9 = 2.4545454545454546;
                            }
                        }
                    }
                }
            } else {
                var9 = 0.8333333333333334;
            }
        } else {
            var9 = 3.3333333333333335;
        }
    }
    double var10;
    if (input[0] <= 76991.0) {
        if (input[0] <= 3625.5) {
            if (input[1] <= 10800.0) {
                if (input[0] <= 231.5) {
                    var10 = 1.0;
                } else {
                    if (input[0] <= 232.5) {
                        var10 = 1.1111111111111112;
                    } else {
                        var10 = 1.0;
                    }
                }
            } else {
                if (input[1] <= 13831.0) {
                    if (input[0] <= 1693.0) {
                        var10 = 0.625;
                    } else {
                        var10 = 0.75;
                    }
                } else {
                    if (input[1] <= 17064.0) {
                        var10 = 1.0;
                    } else {
                        if (input[0] <= 3364.5) {
                            var10 = 1.0;
                        } else {
                            var10 = 0.75;
                        }
                    }
                }
            }
        } else {
            if (input[1] <= 107287.0) {
                if (input[0] <= 15917.5) {
                    if (input[0] <= 8184.0) {
                        if (input[0] <= 8099.0) {
                            if (input[0] <= 7991.0) {
                                if (input[1] <= 48074.0) {
                                    var10 = 1.2857142857142858;
                                } else {
                                    var10 = 2.0;
                                }
                            } else {
                                var10 = 0.6666666666666666;
                            }
                        } else {
                            var10 = 1.9166666666666667;
                        }
                    } else {
                        if (input[0] <= 8303.5) {
                            var10 = 1.0;
                        } else {
                            if (input[0] <= 8498.0) {
                                var10 = 1.5625;
                            } else {
                                if (input[0] <= 8639.5) {
                                    var10 = 0.8571428571428571;
                                } else {
                                    if (input[0] <= 8980.0) {
                                        var10 = 1.6;
                                    } else {
                                        var10 = 1.2142857142857142;
                                    }
                                }
                            }
                        }
                    }
                } else {
                    if (input[0] <= 16914.5) {
                        var10 = 2.0;
                    } else {
                        var10 = 1.5;
                    }
                }
            } else {
                if (input[0] <= 15988.5) {
                    var10 = 0.5454545454545454;
                } else {
                    if (input[0] <= 17121.5) {
                        if (input[1] <= 143640.0) {
                            var10 = 1.1428571428571428;
                        } else {
                            if (input[0] <= 16656.5) {
                                var10 = 1.25;
                            } else {
                                if (input[1] <= 182536.0) {
                                    var10 = 2.0;
                                } else {
                                    var10 = 1.4444444444444444;
                                }
                            }
                        }
                    } else {
                        if (input[0] <= 17797.0) {
                            var10 = 0.5;
                        } else {
                            if (input[1] <= 153016.0) {
                                if (input[1] <= 146826.0) {
                                    var10 = 1.7142857142857142;
                                } else {
                                    var10 = 1.4285714285714286;
                                }
                            } else {
                                if (input[0] <= 60932.5) {
                                    if (input[1] <= 168865.0) {
                                        if (input[1] <= 157258.0) {
                                            var10 = 1.0;
                                        } else {
                                            var10 = 1.2222222222222223;
                                        }
                                    } else {
                                        var10 = 0.42857142857142855;
                                    }
                                } else {
                                    var10 = 1.5;
                                }
                            }
                        }
                    }
                }
            }
        }
    } else {
        if (input[0] <= 209821.5) {
            if (input[0] <= 150227.0) {
                if (input[1] <= 678596.0) {
                    var10 = 1.5714285714285714;
                } else {
                    var10 = 2.5;
                }
            } else {
                var10 = 3.4444444444444446;
            }
        } else {
            if (input[1] <= 3784371.0) {
                if (input[1] <= 1112591.0) {
                    var10 = 1.6923076923076923;
                } else {
                    var10 = 3.0;
                }
            } else {
                var10 = 1.3333333333333333;
            }
        }
    }
    double var11;
    if (input[1] <= 746988.0) {
        if (input[0] <= 7764.5) {
            if (input[1] <= 10800.0) {
                if (input[1] <= 225.0) {
                    if (input[1] <= 217.0) {
                        if (input[1] <= 119.0) {
                            if (input[1] <= 115.0) {
                                var11 = 1.0;
                            } else {
                                var11 = 0.8571428571428571;
                            }
                        } else {
                            var11 = 1.0;
                        }
                    } else {
                        var11 = 0.8888888888888888;
                    }
                } else {
                    var11 = 1.0;
                }
            } else {
                if (input[0] <= 3373.5) {
                    if (input[1] <= 15631.0) {
                        if (input[1] <= 15134.0) {
                            if (input[1] <= 12185.0) {
                                var11 = 0.8571428571428571;
                            } else {
                                var11 = 1.0;
                            }
                        } else {
                            var11 = 0.75;
                        }
                    } else {
                        var11 = 1.0;
                    }
                } else {
                    if (input[1] <= 17125.0) {
                        var11 = 0.7;
                    } else {
                        var11 = 0.9;
                    }
                }
            }
        } else {
            if (input[1] <= 191776.0) {
                if (input[0] <= 8427.5) {
                    if (input[1] <= 79957.0) {
                        if (input[0] <= 8184.0) {
                            if (input[0] <= 8100.0) {
                                if (input[1] <= 60340.0) {
                                    var11 = 1.7142857142857142;
                                } else {
                                    var11 = 1.2222222222222223;
                                }
                            } else {
                                var11 = 1.75;
                            }
                        } else {
                            var11 = 1.2222222222222223;
                        }
                    } else {
                        if (input[1] <= 100562.0) {
                            var11 = 0.6;
                        } else {
                            var11 = 1.1111111111111112;
                        }
                    }
                } else {
                    if (input[0] <= 54417.5) {
                        if (input[1] <= 69239.0) {
                            if (input[0] <= 8526.5) {
                                var11 = 0.6;
                            } else {
                                if (input[1] <= 57299.0) {
                                    var11 = 1.4166666666666667;
                                } else {
                                    var11 = 0.875;
                                }
                            }
                        } else {
                            if (input[1] <= 108223.0) {
                                if (input[0] <= 16341.0) {
                                    if (input[0] <= 12418.0) {
                                        if (input[0] <= 8616.0) {
                                            var11 = 1.6363636363636365;
                                        } else {
                                            var11 = 2.0;
                                        }
                                    } else {
                                        var11 = 1.5384615384615385;
                                    }
                                } else {
                                    if (input[1] <= 92902.0) {
                                        var11 = 2.0;
                                    } else {
                                        var11 = 1.8181818181818181;
                                    }
                                }
                            } else {
                                if (input[1] <= 122229.0) {
                                    var11 = 0.8666666666666667;
                                } else {
                                    if (input[1] <= 148726.0) {
                                        if (input[1] <= 134669.0) {
                                            var11 = 1.7777777777777777;
                                        } else {
                                            var11 = 1.8666666666666667;
                                        }
                                    } else {
                                        if (input[0] <= 16622.0) {
                                            var11 = 1.1428571428571428;
                                        } else {
                                            if (input[1] <= 183968.0) {
                                                if (input[1] <= 155732.0) {
                                                    var11 = 1.4285714285714286;
                                                } else {
                                                    var11 = 1.5;
                                                }
                                            } else {
                                                var11 = 1.8181818181818181;
                                            }
                                        }
                                    }
                                }
                            }
                        }
                    } else {
                        if (input[0] <= 55158.0) {
                            var11 = 1.1428571428571428;
                        } else {
                            var11 = 1.0;
                        }
                    }
                }
            } else {
                if (input[0] <= 60932.5) {
                    if (input[1] <= 272553.0) {
                        var11 = 0.5238095238095238;
                    } else {
                        var11 = 1.0;
                    }
                } else {
                    if (input[1] <= 365546.0) {
                        var11 = 1.8888888888888888;
                    } else {
                        var11 = 1.8;
                    }
                }
            }
        }
    } else {
        if (input[1] <= 4507784.0) {
            if (input[0] <= 215066.5) {
                var11 = 3.5833333333333335;
            } else {
                var11 = 2.764705882352941;
            }
        } else {
            if (input[0] <= 557279.5) {
                if (input[1] <= 6794550.0) {
                    var11 = 1.4285714285714286;
                } else {
                    var11 = 1.8333333333333333;
                }
            } else {
                var11 = 2.8333333333333335;
            }
        }
    }
    double var12;
    if (input[1] <= 272768.0) {
        if (input[1] <= 58083.0) {
            if (input[0] <= 8022.0) {
                if (input[0] <= 4622.0) {
                    if (input[0] <= 3390.0) {
                        if (input[0] <= 938.5) {
                            if (input[0] <= 231.5) {
                                if (input[1] <= 225.0) {
                                    if (input[0] <= 49.5) {
                                        if (input[1] <= 180.0) {
                                            var12 = 1.0;
                                        } else {
                                            var12 = 0.8571428571428571;
                                        }
                                    } else {
                                        var12 = 1.0;
                                    }
                                } else {
                                    var12 = 1.0;
                                }
                            } else {
                                if (input[1] <= 1313.0) {
                                    if (input[1] <= 1146.0) {
                                        var12 = 1.0;
                                    } else {
                                        var12 = 1.125;
                                    }
                                } else {
                                    var12 = 1.0;
                                }
                            }
                        } else {
                            if (input[0] <= 1156.5) {
                                var12 = 0.5714285714285714;
                            } else {
                                if (input[0] <= 3364.5) {
                                    if (input[1] <= 13568.0) {
                                        var12 = 1.0;
                                    } else {
                                        if (input[0] <= 3146.0) {
                                            var12 = 0.8;
                                        } else {
                                            var12 = 1.0;
                                        }
                                    }
                                } else {
                                    var12 = 0.95;
                                }
                            }
                        }
                    } else {
                        var12 = 1.25;
                    }
                } else {
                    var12 = 0.6363636363636364;
                }
            } else {
                var12 = 1.3125;
            }
        } else {
            if (input[1] <= 155324.0) {
                if (input[1] <= 107297.0) {
                    if (input[1] <= 96718.0) {
                        if (input[0] <= 8064.5) {
                            var12 = 1.75;
                        } else {
                            if (input[0] <= 8639.5) {
                                if (input[0] <= 8196.0) {
                                    var12 = 1.4;
                                } else {
                                    if (input[0] <= 8306.5) {
                                        var12 = 1.1428571428571428;
                                    } else {
                                        var12 = 0.9;
                                    }
                                }
                            } else {
                                if (input[1] <= 71729.0) {
                                    var12 = 1.1111111111111112;
                                } else {
                                    if (input[0] <= 16286.0) {
                                        var12 = 1.6;
                                    } else {
                                        var12 = 1.9;
                                    }
                                }
                            }
                        }
                    } else {
                        if (input[1] <= 101311.0) {
                            var12 = 1.8571428571428572;
                        } else {
                            var12 = 2.0;
                        }
                    }
                } else {
                    if (input[1] <= 128089.0) {
                        if (input[0] <= 12479.0) {
                            var12 = 0.875;
                        } else {
                            var12 = 0.42857142857142855;
                        }
                    } else {
                        if (input[0] <= 36154.5) {
                            if (input[1] <= 138718.0) {
                                var12 = 2.0;
                            } else {
                                var12 = 1.6666666666666667;
                            }
                        } else {
                            var12 = 1.4444444444444444;
                        }
                    }
                }
            } else {
                if (input[1] <= 181841.0) {
                    if (input[1] <= 164677.0) {
                        var12 = 0.7777777777777778;
                    } else {
                        var12 = 0.6666666666666666;
                    }
                } else {
                    if (input[1] <= 191427.0) {
                        var12 = 1.5;
                    } else {
                        if (input[1] <= 243202.0) {
                            var12 = 0.7857142857142857;
                        } else {
                            var12 = 1.0;
                        }
                    }
                }
            }
        }
    } else {
        if (input[0] <= 339223.5) {
            if (input[1] <= 1994631.0) {
                if (input[1] <= 887769.0) {
                    if (input[0] <= 17342.0) {
                        var12 = 1.8;
                    } else {
                        if (input[1] <= 659745.0) {
                            var12 = 2.0;
                        } else {
                            var12 = 2.3;
                        }
                    }
                } else {
                    var12 = 1.6842105263157894;
                }
            } else {
                if (input[1] <= 3232211.0) {
                    var12 = 4.214285714285714;
                } else {
                    if (input[1] <= 6285214.0) {
                        var12 = 1.0;
                    } else {
                        var12 = 2.5;
                    }
                }
            }
        } else {
            var12 = 3.6666666666666665;
        }
    }
    double var13;
    if (input[1] <= 586203.0) {
        if (input[0] <= 3625.5) {
            if (input[1] <= 13568.0) {
                if (input[0] <= 231.5) {
                    var13 = 1.0;
                } else {
                    if (input[0] <= 232.5) {
                        if (input[1] <= 1009.0) {
                            var13 = 1.0;
                        } else {
                            var13 = 1.1111111111111112;
                        }
                    } else {
                        var13 = 1.0;
                    }
                }
            } else {
                if (input[0] <= 3377.0) {
                    if (input[0] <= 1871.0) {
                        var13 = 0.8;
                    } else {
                        var13 = 1.0;
                    }
                } else {
                    var13 = 0.7777777777777778;
                }
            }
        } else {
            if (input[0] <= 17173.0) {
                if (input[0] <= 16570.0) {
                    if (input[0] <= 8629.5) {
                        if (input[0] <= 8183.0) {
                            if (input[1] <= 40248.0) {
                                var13 = 1.4285714285714286;
                            } else {
                                if (input[1] <= 71567.0) {
                                    if (input[0] <= 7986.5) {
                                        var13 = 1.7142857142857142;
                                    } else {
                                        var13 = 1.9;
                                    }
                                } else {
                                    var13 = 1.5454545454545454;
                                }
                            }
                        } else {
                            if (input[1] <= 94711.0) {
                                if (input[0] <= 8430.5) {
                                    var13 = 1.0;
                                } else {
                                    if (input[0] <= 8479.5) {
                                        var13 = 1.5;
                                    } else {
                                        var13 = 1.625;
                                    }
                                }
                            } else {
                                var13 = 2.0;
                            }
                        }
                    } else {
                        if (input[0] <= 12418.5) {
                            if (input[0] <= 8910.5) {
                                var13 = 1.25;
                            } else {
                                var13 = 0.6363636363636364;
                            }
                        } else {
                            if (input[1] <= 118004.0) {
                                if (input[1] <= 97779.0) {
                                    var13 = 1.375;
                                } else {
                                    var13 = 1.9;
                                }
                            } else {
                                if (input[1] <= 167888.0) {
                                    var13 = 0.5;
                                } else {
                                    var13 = 1.5714285714285714;
                                }
                            }
                        }
                    }
                } else {
                    if (input[0] <= 16891.0) {
                        if (input[1] <= 103712.0) {
                            var13 = 2.0;
                        } else {
                            var13 = 1.875;
                        }
                    } else {
                        if (input[1] <= 137402.0) {
                            var13 = 1.5555555555555556;
                        } else {
                            var13 = 1.6666666666666667;
                        }
                    }
                }
            } else {
                if (input[1] <= 272294.0) {
                    if (input[1] <= 191776.0) {
                        if (input[1] <= 130313.0) {
                            var13 = 0.9090909090909091;
                        } else {
                            if (input[1] <= 147828.0) {
                                var13 = 1.6428571428571428;
                            } else {
                                if (input[1] <= 160341.0) {
                                    if (input[0] <= 54421.5) {
                                        var13 = 1.1428571428571428;
                                    } else {
                                        var13 = 0.5714285714285714;
                                    }
                                } else {
                                    if (input[1] <= 181473.0) {
                                        var13 = 1.5714285714285714;
                                    } else {
                                        var13 = 1.1666666666666667;
                                    }
                                }
                            }
                        }
                    } else {
                        if (input[1] <= 252260.0) {
                            var13 = 0.5714285714285714;
                        } else {
                            var13 = 1.0;
                        }
                    }
                } else {
                    var13 = 1.5;
                }
            }
        }
    } else {
        if (input[0] <= 211761.5) {
            if (input[1] <= 1701476.0) {
                if (input[0] <= 84845.5) {
                    var13 = 2.4;
                } else {
                    var13 = 2.857142857142857;
                }
            } else {
                if (input[1] <= 3333492.0) {
                    var13 = 4.090909090909091;
                } else {
                    if (input[0] <= 155688.0) {
                        var13 = 3.0;
                    } else {
                        var13 = 2.0;
                    }
                }
            }
        } else {
            if (input[1] <= 7713788.0) {
                if (input[1] <= 1067762.0) {
                    var13 = 2.0;
                } else {
                    var13 = 1.1111111111111112;
                }
            } else {
                var13 = 3.5;
            }
        }
    }
    double var14;
    if (input[1] <= 269878.0) {
        if (input[1] <= 33334.0) {
            if (input[0] <= 3373.5) {
                if (input[1] <= 10673.0) {
                    if (input[1] <= 1295.0) {
                        var14 = 1.0;
                    } else {
                        if (input[0] <= 232.5) {
                            if (input[1] <= 1355.0) {
                                var14 = 1.2222222222222223;
                            } else {
                                var14 = 1.0;
                            }
                        } else {
                            var14 = 1.0;
                        }
                    }
                } else {
                    if (input[1] <= 13858.0) {
                        var14 = 0.7777777777777778;
                    } else {
                        var14 = 1.0;
                    }
                }
            } else {
                var14 = 0.9;
            }
        } else {
            if (input[0] <= 17173.0) {
                if (input[1] <= 107424.0) {
                    if (input[1] <= 84308.0) {
                        if (input[1] <= 82827.0) {
                            if (input[1] <= 66138.0) {
                                if (input[0] <= 8629.0) {
                                    if (input[1] <= 59533.0) {
                                        if (input[0] <= 8020.5) {
                                            var14 = 1.6;
                                        } else {
                                            var14 = 1.8;
                                        }
                                    } else {
                                        var14 = 1.1111111111111112;
                                    }
                                } else {
                                    var14 = 0.9230769230769231;
                                }
                            } else {
                                if (input[1] <= 78991.0) {
                                    if (input[1] <= 73933.0) {
                                        var14 = 1.5555555555555556;
                                    } else {
                                        var14 = 2.0;
                                    }
                                } else {
                                    var14 = 1.3125;
                                }
                            }
                        } else {
                            var14 = 1.0;
                        }
                    } else {
                        if (input[1] <= 101380.0) {
                            if (input[0] <= 15917.5) {
                                var14 = 1.5625;
                            } else {
                                var14 = 1.8888888888888888;
                            }
                        } else {
                            var14 = 1.9285714285714286;
                        }
                    }
                } else {
                    if (input[0] <= 16896.5) {
                        if (input[0] <= 16214.0) {
                            if (input[0] <= 12464.5) {
                                var14 = 0.8571428571428571;
                            } else {
                                var14 = 1.5625;
                            }
                        } else {
                            if (input[1] <= 134022.0) {
                                var14 = 0.4444444444444444;
                            } else {
                                var14 = 1.1666666666666667;
                            }
                        }
                    } else {
                        var14 = 1.8571428571428572;
                    }
                }
            } else {
                if (input[1] <= 159655.0) {
                    if (input[1] <= 150979.0) {
                        if (input[0] <= 36196.5) {
                            var14 = 1.0;
                        } else {
                            var14 = 1.2857142857142858;
                        }
                    } else {
                        var14 = 0.6363636363636364;
                    }
                } else {
                    if (input[0] <= 17863.0) {
                        var14 = 0.5555555555555556;
                    } else {
                        if (input[0] <= 68785.0) {
                            var14 = 1.55;
                        } else {
                            var14 = 1.0769230769230769;
                        }
                    }
                }
            }
        }
    } else {
        if (input[0] <= 339223.0) {
            if (input[0] <= 220923.0) {
                if (input[0] <= 177587.5) {
                    if (input[1] <= 747610.0) {
                        if (input[0] <= 60327.5) {
                            var14 = 1.1666666666666667;
                        } else {
                            var14 = 1.9090909090909092;
                        }
                    } else {
                        if (input[1] <= 1021290.0) {
                            var14 = 2.75;
                        } else {
                            var14 = 1.7272727272727273;
                        }
                    }
                } else {
                    if (input[1] <= 2372635.0) {
                        var14 = 2.8333333333333335;
                    } else {
                        var14 = 3.7142857142857144;
                    }
                }
            } else {
                var14 = 1.0833333333333333;
            }
        } else {
            var14 = 3.3333333333333335;
        }
    }
    double var15;
    if (input[1] <= 332381.0) {
        if (input[1] <= 33603.0) {
            if (input[0] <= 49.5) {
                if (input[0] <= 26.5) {
                    var15 = 1.0;
                } else {
                    if (input[1] <= 211.0) {
                        if (input[1] <= 116.0) {
                            var15 = 1.0;
                        } else {
                            var15 = 0.9629629629629629;
                        }
                    } else {
                        var15 = 0.8333333333333334;
                    }
                }
            } else {
                if (input[1] <= 10800.0) {
                    if (input[0] <= 231.5) {
                        var15 = 1.0;
                    } else {
                        if (input[0] <= 232.5) {
                            if (input[1] <= 1039.0) {
                                var15 = 1.0;
                            } else {
                                var15 = 1.1428571428571428;
                            }
                        } else {
                            var15 = 1.0;
                        }
                    }
                } else {
                    if (input[0] <= 1807.5) {
                        if (input[1] <= 13866.0) {
                            var15 = 0.75;
                        } else {
                            var15 = 1.0;
                        }
                    } else {
                        var15 = 1.0;
                    }
                }
            }
        } else {
            if (input[0] <= 17121.5) {
                if (input[1] <= 171277.0) {
                    if (input[0] <= 16680.5) {
                        if (input[1] <= 49128.0) {
                            var15 = 1.9;
                        } else {
                            if (input[0] <= 8468.0) {
                                if (input[1] <= 69246.0) {
                                    if (input[0] <= 8042.5) {
                                        var15 = 1.25;
                                    } else {
                                        var15 = 1.5;
                                    }
                                } else {
                                    if (input[1] <= 107116.0) {
                                        if (input[1] <= 85757.0) {
                                            var15 = 1.8888888888888888;
                                        } else {
                                            var15 = 1.6666666666666667;
                                        }
                                    } else {
                                        var15 = 1.4;
                                    }
                                }
                            } else {
                                if (input[0] <= 8639.5) {
                                    if (input[0] <= 8479.0) {
                                        var15 = 0.6666666666666666;
                                    } else {
                                        var15 = 1.0;
                                    }
                                } else {
                                    if (input[0] <= 8790.5) {
                                        var15 = 1.8333333333333333;
                                    } else {
                                        if (input[1] <= 122981.0) {
                                            if (input[1] <= 88821.0) {
                                                if (input[1] <= 82247.0) {
                                                    var15 = 1.0;
                                                } else {
                                                    var15 = 1.3;
                                                }
                                            } else {
                                                var15 = 1.9285714285714286;
                                            }
                                        } else {
                                            var15 = 0.8888888888888888;
                                        }
                                    }
                                }
                            }
                        }
                    } else {
                        if (input[1] <= 112326.0) {
                            var15 = 2.0;
                        } else {
                            var15 = 1.75;
                        }
                    }
                } else {
                    var15 = 0.875;
                }
            } else {
                if (input[0] <= 68455.5) {
                    if (input[1] <= 134669.0) {
                        var15 = 0.5714285714285714;
                    } else {
                        if (input[1] <= 151435.0) {
                            var15 = 1.5714285714285714;
                        } else {
                            if (input[0] <= 55712.5) {
                                if (input[1] <= 154312.0) {
                                    var15 = 0.8333333333333334;
                                } else {
                                    if (input[0] <= 17797.0) {
                                        var15 = 1.1428571428571428;
                                    } else {
